{
    "model": [
        {
            "layer 0": {
                "inputs": 96,
                "outputs": 4,
                "activation": "none",
                "weights": [
                    [
                        209905214.03187564,
                        3027.158535353054,
                        9789.277071237391,
                        7163.305987273662
                    ],
                    [
                        381104086.8602356,
                        12768.763360002487,
                        15362.635516472728,
                        13941.157387043804
                    ],
                    [
                        284411627.9508105,
                        -18.681760291725414,
                        9009.68181931386,
                        7134.74546384222
                    ],
                    [
                        191252418.49720302,
                        -4631.318053771918,
                        5564.1121583700815,
                        1870.8350607113714
                    ],
                    [
                        69819907.3410236,
                        -6710.582765544327,
                        -1205.031564540287,
                        -2169.4080941195
                    ],
                    [
                        285818902.8358171,
                        -10715.936996446353,
                        6050.521302134757,
                        -3732.1819897712257
                    ],
                    [
                        169710159.1692694,
                        -1734.4543379316278,
                        6784.1905699067165,
                        921.8690151279771
                    ],
                    [
                        284422622.20618427,
                        -7094.494462175119,
                        6853.539370487976,
                        4050.618590271024
                    ],
                    [
                        169864681.55793813,
                        8708.597542661313,
                        11506.270746123417,
                        10673.38780645671
                    ],
                    [
                        178557140.2865149,
                        3681.9286566104183,
                        7013.490544737773,
                        2291.6965985895836
                    ],
                    [
                        506410096.38563204,
                        9080.725354475007,
                        13866.056093716414,
                        12778.36463944232
                    ],
                    [
                        271334627.3330802,
                        -1530.7102165798924,
                        10403.117902946975,
                        4752.897020471612
                    ],
                    [
                        429364679.2626084,
                        10015.62397777723,
                        14306.04902033865,
                        14362.874032370535
                    ],
                    [
                        110033302.88831228,
                        9938.522824445881,
                        9904.8587931865,
                        8466.65967785434
                    ],
                    [
                        75523773.62645875,
                        10526.278702199306,
                        7905.172732444026,
                        8820.787363264037
                    ],
                    [
                        175276772.95247647,
                        5839.289075957278,
                        5534.813967425992,
                        5839.459935506908
                    ],
                    [
                        88431073.15153047,
                        -8642.071466665293,
                        -115.04126213053523,
                        -1696.3257545063889
                    ],
                    [
                        109850188.43618827,
                        -9116.876162241126,
                        308.6950554758203,
                        306.14699235847155
                    ],
                    [
                        416360375.5160106,
                        3534.9717012000037,
                        10936.642339910244,
                        11135.35542716831
                    ],
                    [
                        81845188.18927312,
                        5356.527648004721,
                        6660.32752232324,
                        7665.527005302967
                    ],
                    [
                        170061514.3802478,
                        6271.163784716305,
                        10170.480052811903,
                        5650.69535331809
                    ],
                    [
                        108447242.9064202,
                        -5036.175855075415,
                        7577.033897893214,
                        6510.332363013238
                    ],
                    [
                        211133011.4409878,
                        -7490.801215968384,
                        3934.7865936184007,
                        -5413.061301089637
                    ],
                    [
                        203145271.9170959,
                        -254.45080923924644,
                        7036.323126204214,
                        3660.0188680246806
                    ],
                    [
                        80163471.69875623,
                        -6241.835042376456,
                        -2624.9592901082915,
                        -9156.885351749765
                    ],
                    [
                        67029263.53029351,
                        4138.291603745208,
                        9955.071211245326,
                        8181.175563049135
                    ],
                    [
                        1676834529.2286325,
                        4379.550860149791,
                        16172.858491220764,
                        15735.276977939926
                    ],
                    [
                        224552142.30448496,
                        -6709.769639451417,
                        5569.164628582587,
                        5242.386900659462
                    ],
                    [
                        224549821.9239901,
                        -5491.472983669143,
                        5860.919385455827,
                        5477.876107514424
                    ],
                    [
                        1066203391.1209657,
                        2240.511009769526,
                        14122.120133130315,
                        12672.975348980775
                    ],
                    [
                        89978169.23186854,
                        -392.1487943544522,
                        5321.075435964239,
                        3373.7256590882175
                    ],
                    [
                        128445660.05442809,
                        -5080.039055395636,
                        1727.779583638431,
                        -1597.1994725785064
                    ],
                    [
                        67032379.613891155,
                        3398.9144893791486,
                        7314.088039582921,
                        7171.288811116358
                    ],
                    [
                        89987196.5003859,
                        3856.7088945130517,
                        7548.690519979704,
                        773.1879487255077
                    ],
                    [
                        169861181.64236316,
                        8961.365457048993,
                        11295.82214860313,
                        10832.929115058845
                    ],
                    [
                        142609021.9381164,
                        -5479.406485797485,
                        3128.5483703873056,
                        -510.4357615589218
                    ],
                    [
                        111399250.3857923,
                        -2800.6370177718313,
                        2793.1780523086527,
                        6382.289029782101
                    ],
                    [
                        517826767.47364974,
                        20.31951671798917,
                        12155.540867399282,
                        7366.492443816773
                    ],
                    [
                        184526001.1569681,
                        -6504.506925174908,
                        3881.0483584645835,
                        -2791.7714649464588
                    ],
                    [
                        80333584.2701527,
                        -511.7793040057756,
                        3429.2837308142443,
                        3703.790024991612
                    ],
                    [
                        203154216.6329713,
                        -6530.658603283455,
                        5189.332021883831,
                        -505.66924556164804
                    ],
                    [
                        1299899796.9230328,
                        2704.2615104888537,
                        16188.64450410046,
                        13612.216419977567
                    ],
                    [
                        189872496.3882552,
                        3262.01281098087,
                        9876.473893110857,
                        7419.258161521807
                    ],
                    [
                        193095376.62689123,
                        -4812.3427198194995,
                        1051.3483066321196,
                        3624.790003938057
                    ],
                    [
                        111393593.1395674,
                        111.37986730830282,
                        4902.447078816435,
                        6156.757468036319
                    ],
                    [
                        183137807.32625726,
                        2724.94153359285,
                        7553.631111662056,
                        6510.037549966183
                    ],
                    [
                        76929519.61669637,
                        5585.028203041484,
                        3934.148099731722,
                        5500.728484727982
                    ],
                    [
                        110064950.32243463,
                        -5789.918724026079,
                        -116.45137439083521,
                        -7453.345480222917
                    ],
                    [
                        68418665.31391235,
                        -4070.5474545506763,
                        4652.272713206312,
                        4112.3663635309895
                    ],
                    [
                        536865635.4911658,
                        -6198.060737452629,
                        8403.337634371726,
                        -508.96897638765785
                    ],
                    [
                        128718641.9691625,
                        -4388.635216628619,
                        -3862.729247607204,
                        -5439.408928867527
                    ],
                    [
                        183138227.60243353,
                        4091.325695608224,
                        8664.809648143335,
                        8766.714210281098
                    ],
                    [
                        183138460.48028684,
                        1202.2212008398017,
                        7387.859370376966,
                        6538.547185588204
                    ],
                    [
                        74018575.2454318,
                        10778.212814048624,
                        7875.74399109199,
                        7595.532882672514
                    ],
                    [
                        69996739.05347997,
                        7919.192159118478,
                        10018.945441944548,
                        7651.11882447913
                    ],
                    [
                        81853285.52252617,
                        5480.472806236665,
                        6798.561061087397,
                        8332.316485539654
                    ],
                    [
                        956135169.4019741,
                        10619.566646416628,
                        17265.032573268283,
                        15199.880419615682
                    ],
                    [
                        599393441.5828217,
                        173.735048246719,
                        13973.682830300393,
                        12764.222663816383
                    ],
                    [
                        88430867.77901317,
                        -1748.2214479735546,
                        4835.902595042514,
                        -1277.9616189896642
                    ],
                    [
                        68440607.40792306,
                        1204.1635414155626,
                        3294.955788339347,
                        2520.577235448306
                    ],
                    [
                        169854058.74192676,
                        8139.208447035848,
                        11521.207857100564,
                        10586.469186168506
                    ],
                    [
                        219973294.14328846,
                        -392.2251740630536,
                        8203.473234310182,
                        6502.746880488551
                    ],
                    [
                        108457359.36379448,
                        417.63858484827523,
                        5311.112624270997,
                        6508.432150043235
                    ],
                    [
                        171251097.38957962,
                        1932.4440574918506,
                        8841.466772109938,
                        6985.093216517019
                    ],
                    [
                        111383183.63941938,
                        -5541.983817259186,
                        4243.682419137464,
                        4714.393255612971
                    ],
                    [
                        291152708.54511,
                        -2054.1483693058617,
                        9770.938762693646,
                        1145.477398325147
                    ],
                    [
                        110195680.67076632,
                        1198.373059514303,
                        7344.045207582699,
                        5471.215790405145
                    ],
                    [
                        700363425.4738505,
                        -6390.065061302539,
                        12798.872312738245,
                        4476.461364352045
                    ],
                    [
                        75742053.74313536,
                        6718.161688508686,
                        5500.521525804079,
                        4981.430487312733
                    ],
                    [
                        169854242.72686553,
                        8140.883714360248,
                        11452.067821845149,
                        10648.397491977075
                    ],
                    [
                        81853632.7847613,
                        3834.4119091200855,
                        7598.786194963205,
                        8055.758265699476
                    ],
                    [
                        121734580.61591165,
                        -6492.643211038066,
                        784.9118504568161,
                        -1931.9193890235576
                    ],
                    [
                        68574081.91355652,
                        11253.767973683618,
                        11634.192365899495,
                        11631.062683250275
                    ],
                    [
                        68562943.27797195,
                        11508.44925545052,
                        11554.902695352757,
                        11482.227012848212
                    ],
                    [
                        72481731.92575786,
                        7139.225291758458,
                        1090.314428766913,
                        6761.907658427566
                    ],
                    [
                        246772375.90742484,
                        8771.62724148386,
                        10976.979174080621,
                        11490.298872360476
                    ],
                    [
                        68778196.71435937,
                        8808.681946648918,
                        10182.737526557337,
                        8780.206655388014
                    ],
                    [
                        1195612282.3152223,
                        -1314.1145798435716,
                        15200.845598487618,
                        10798.498345576614
                    ],
                    [
                        178210981.50023672,
                        2054.3737923895596,
                        4876.0891352351555,
                        3026.0187093646564
                    ],
                    [
                        111383193.6031583,
                        -4051.0113131991084,
                        2557.4530046634413,
                        6670.303182004569
                    ],
                    [
                        184526278.40739128,
                        -6222.906267835765,
                        3710.1450953015037,
                        -3652.4103503045785
                    ],
                    [
                        71215603.28383505,
                        -10307.901858104735,
                        -9748.173442665237,
                        -9040.651886868993
                    ],
                    [
                        375800537.1698342,
                        -2644.960180553334,
                        7575.258105220078,
                        2349.97361905862
                    ],
                    [
                        143277050.45590562,
                        -4706.032907398131,
                        -2912.7624225064205,
                        -1878.1657261827522
                    ],
                    [
                        168322465.1705835,
                        6813.032806724913,
                        9795.214350273569,
                        9641.21491493903
                    ],
                    [
                        69821452.69102742,
                        -6276.654019364692,
                        -1690.736897370901,
                        -2571.6676015443018
                    ],
                    [
                        56880028.31344647,
                        8269.472786795734,
                        2353.221257521471,
                        5400.1139157537
                    ],
                    [
                        68281989.85936764,
                        -8486.272189886366,
                        -8844.910687719534,
                        -10055.092590334862
                    ],
                    [
                        168350774.1180605,
                        9369.797390795733,
                        11431.460800383556,
                        10486.116581142938
                    ],
                    [
                        80310677.30943696,
                        77.16799574480666,
                        4303.036320672495,
                        3254.347035501294
                    ],
                    [
                        135417201.04451564,
                        -9085.217989469716,
                        -10721.766890095949,
                        -11062.999057359593
                    ],
                    [
                        110189374.62644869,
                        1343.9021863655514,
                        7588.54320281494,
                        5661.555651206915
                    ],
                    [
                        169866141.0620076,
                        9083.946179897453,
                        11493.052233109727,
                        10683.188903071761
                    ],
                    [
                        111216593.75407822,
                        8882.722826496352,
                        9059.09111420508,
                        6377.932741302242
                    ],
                    [
                        63961104.48399368,
                        6180.707497149565,
                        7425.041752691047,
                        6435.982136717006
                    ],
                    [
                        81705037.78856787,
                        -7574.624598753754,
                        -6982.166622737792,
                        -3536.916395362608
                    ]
                ],
                "bias": [
                    [
                        21909550244.755432,
                        11684.274989752515,
                        21547.198716868428,
                        21135.92206955521
                    ]
                ]
            }
        },
        {
            "layer 1": {
                "inputs": 4,
                "outputs": 96,
                "activation": "softmax",
                "weights": [
                    [
                        -15767.054892912092,
                        -18722.467706768148,
                        -17283.87706776493,
                        -17292.34607432266,
                        -17292.95728810286,
                        -17293.606764449753,
                        -17296.03838667922,
                        -17296.87174233609,
                        -17296.853310642924,
                        -17300.085485977845,
                        -17498.441394913,
                        -17284.879249709968,
                        -24405.89521263752,
                        -15767.769849553044,
                        -17301.40388631787,
                        -17294.481008542025,
                        -17301.539808038644,
                        -17293.27383263687,
                        -15767.084901154863,
                        -17296.971042848843,
                        -17293.375803510047,
                        -17294.726781484314,
                        -17288.433748942356,
                        -17293.823145419195,
                        -17299.542220000738,
                        -17292.749930862585,
                        -120715.14378766989,
                        -17300.717643343207,
                        -17296.103054742267,
                        -37724.614730131274,
                        -17294.323452553926,
                        -17301.274991353937,
                        -17289.78322463615,
                        -17298.883199498123,
                        -17296.503180392163,
                        -15767.194142932938,
                        -17288.988392420728,
                        -18718.62507372104,
                        -17293.870992956392,
                        -17288.23115228827,
                        -17300.76588302013,
                        -59589.19053401475,
                        -17296.140893181826,
                        -15767.217327847235,
                        -17291.394315754533,
                        -17294.0502138882,
                        -17293.05020670137,
                        -17302.46568472364,
                        -17294.05838561079,
                        -18719.045278424896,
                        -17300.03772002571,
                        -17291.037879952386,
                        -17293.180671546037,
                        -17296.248221866634,
                        -17288.533699664542,
                        -17297.941824251884,
                        -30853.29203900042,
                        -18719.137277513895,
                        -17297.87007580539,
                        -17288.81162059768,
                        -17294.3362047314,
                        -15767.19639359732,
                        -17289.9531342865,
                        -17289.679239997968,
                        -17299.19071315217,
                        -17290.724599341924,
                        -17295.471209188083,
                        -18728.929998174408,
                        -17289.832611445527,
                        -17297.394664515163,
                        -17293.95550262941,
                        -17295.374564933223,
                        -17301.493252810425,
                        -17299.466058826325,
                        -17291.175655030424,
                        -15767.207128165432,
                        -17294.36439388526,
                        -30854.708261163778,
                        -17294.89223183188,
                        -17300.71207941472,
                        -17292.883749861332,
                        -17292.007052533434,
                        -15767.127433977654,
                        -17291.504796283814,
                        -17296.88859791396,
                        -17300.78218155035,
                        -18870.34019191014,
                        -17295.158380727044,
                        -17293.073188739392,
                        -17289.766678370688,
                        -17294.867937966137,
                        -17298.16058935074,
                        -17289.383240313044,
                        -15767.684605501592,
                        -17300.016804927927,
                        -17296.828687961384
                    ],
                    [
                        0.4027156691316139,
                        0.12103035475187603,
                        -0.22547916317337732,
                        -0.408837511677608,
                        -0.24412280209660273,
                        -0.1471036314887657,
                        -0.3808814431414723,
                        -0.2607026787639928,
                        -0.3159799571752455,
                        -0.09937199718833828,
                        0.12560744994123493,
                        -0.43553195854244875,
                        -0.034101947239687375,
                        -0.268003231657177,
                        -0.1691235932871148,
                        -0.41771718980666367,
                        -0.22752733729144844,
                        -0.28945705098653074,
                        0.3145968864120319,
                        -0.23013246148557667,
                        -0.2978031794718042,
                        -0.48071685537112285,
                        -0.2109039383207472,
                        -0.24831817536520037,
                        -0.23140010974407996,
                        -0.1718774765808102,
                        0.08524420373552657,
                        -0.34245430150688166,
                        -0.3758327574108554,
                        0.1846841867954228,
                        -0.25473403807911704,
                        -0.15922902669175765,
                        -0.11897866586611322,
                        -0.143524846420638,
                        -0.32776868147616434,
                        0.01108315819449486,
                        -0.2049550573011215,
                        0.22787697889185662,
                        -0.3504825904605162,
                        -0.25742344790543215,
                        -0.3504045089145262,
                        0.39398899200419574,
                        -0.43108212765978327,
                        -0.09519543151032654,
                        -0.06449457970703018,
                        -0.22262483338826622,
                        -0.18325852282995977,
                        -0.22844257795340955,
                        -0.06965432869820239,
                        0.1931153291773601,
                        -0.15741205538663175,
                        -0.052768972350247044,
                        -0.17290266448644354,
                        -0.5549143164153827,
                        -0.22741912105978757,
                        -0.17812644829472013,
                        0.37131139820828485,
                        0.29393905971866596,
                        -0.3923772617883604,
                        -0.22195897973606069,
                        -0.3430730735252739,
                        0.11353488019408617,
                        -0.28196661619029756,
                        -0.09751102272929375,
                        -0.08971306422705311,
                        -0.5135312297985127,
                        -0.3596155393459182,
                        0.15220199515847388,
                        -0.3620630668167316,
                        -0.3559316444237279,
                        -0.21750362647354168,
                        -0.18667804385269768,
                        -0.14987662304849492,
                        -0.3979103648300043,
                        -0.25045506883395274,
                        0.010263373578949622,
                        -0.27272555658058584,
                        0.27363840896964947,
                        -0.5315990820471652,
                        -0.032035921942368005,
                        -0.24397496470017518,
                        -0.1892063327122906,
                        0.003473503487621207,
                        -0.3047373356355624,
                        -0.15535685104209088,
                        -0.23185103148091105,
                        -0.40761511309185267,
                        -0.29629027803497526,
                        -0.2467316965276266,
                        -0.4381135185547897,
                        -0.1638301688613123,
                        -0.4355403574914841,
                        -0.3028861524998138,
                        -0.0005410729019533149,
                        -0.2709156502367505,
                        -0.21348854884102159
                    ],
                    [
                        0.2879914506590844,
                        0.21019619164509576,
                        -0.6302911484653472,
                        -0.4327644305849805,
                        -0.5357312501831294,
                        -0.37396848552440815,
                        -0.45620316168568203,
                        -0.48694735463332633,
                        -0.38859749536348775,
                        -0.3366002961551658,
                        0.021509713666424825,
                        -0.39305275219098273,
                        0.27065221758113983,
                        -0.33439372764453346,
                        -0.35598245848882254,
                        -0.4201168244802472,
                        -0.36803869693119134,
                        -0.4157151781104017,
                        0.024599707869779854,
                        -0.5010569338254621,
                        -0.42698223599363727,
                        -0.3124745348404521,
                        -0.6041251197850201,
                        -0.30375323422585526,
                        -0.33781943125217134,
                        -0.4723535378325054,
                        -0.6444323326753596,
                        -0.3473668166254213,
                        -0.4198051027692545,
                        0.0702549399284025,
                        -0.3228332122130047,
                        -0.23851918237070724,
                        -0.5380697732065357,
                        -0.3271754820733796,
                        -0.49845813663520777,
                        -0.10767820655240218,
                        -0.36980255355377833,
                        0.1943252900630462,
                        -0.4887183286033828,
                        -0.43838660784434513,
                        -0.38716115738872625,
                        0.1377602630026046,
                        -0.43847326020657745,
                        -0.09900812194738287,
                        -0.379904863796295,
                        -0.4454615290809204,
                        -0.3674222571372089,
                        -0.4849033462733316,
                        -0.27453934624677406,
                        0.1846340583950494,
                        -0.5225499802784256,
                        -0.622443979844779,
                        -0.432748581153761,
                        -0.44315429337935586,
                        -0.5179583219375944,
                        -0.43789279503537304,
                        0.354890883782085,
                        0.26278675798176043,
                        -0.36735309459665355,
                        -0.5093306754551037,
                        -0.35827607460472655,
                        0.12022545396268489,
                        -0.43629935989409185,
                        -0.08664687332265,
                        -0.2554056846294549,
                        -0.7130568249238542,
                        -0.584217624284389,
                        -0.003487559170238215,
                        -0.3391654187357181,
                        -0.41911261215452345,
                        -0.25964866083287297,
                        -0.3707656477212493,
                        -0.4423204184034858,
                        -0.19204579371765063,
                        -0.545293147781847,
                        0.08600540168164747,
                        -0.44949209725408423,
                        0.22597514226149212,
                        -0.3605347410172157,
                        -0.41604613751674435,
                        -0.23774514217453402,
                        -0.34009912164599193,
                        -0.1824538957279624,
                        -0.34073127224794314,
                        -0.4734857953725265,
                        -0.44761957319941265,
                        -0.7218099641764587,
                        -0.23852893194514888,
                        -0.38003750944683173,
                        -0.3322301397719946,
                        -0.5260172201531498,
                        -0.5296754927018349,
                        -0.37867816554288547,
                        -0.07610741861009775,
                        -0.3387677774933826,
                        -0.3533410657370228
                    ],
                    [
                        0.23794886843293073,
                        0.1735247726062201,
                        -0.43220672659762843,
                        -0.42538398161227536,
                        -0.27897306661965593,
                        -0.4224747242323892,
                        -0.23381177267915768,
                        -0.32557832303957246,
                        -0.45835058833635367,
                        -0.3119550206774676,
                        0.1997094622393167,
                        -0.5112873156305681,
                        0.1478460860367273,
                        -0.08994881953214744,
                        -0.4023293695369052,
                        -0.4887622665822298,
                        -0.4134639148424591,
                        -0.33216631868905594,
                        0.16865510692736388,
                        -0.5114332923189581,
                        -0.2793426305023502,
                        -0.18689831927498074,
                        -0.36408489836377345,
                        -0.14575481198717805,
                        -0.37834180900870595,
                        -0.3981569622777514,
                        -0.049572413644233496,
                        -0.36969969278757037,
                        -0.4776796458888804,
                        0.211448354987462,
                        -0.46486031495654734,
                        -0.33785681180046384,
                        -0.41582821349547655,
                        -0.36474306359204445,
                        -0.4097725837823644,
                        0.16140014882524434,
                        -0.27059082764703846,
                        0.16124259556305595,
                        -0.48459439187134057,
                        -0.4822707131396649,
                        -0.3789993706038945,
                        0.05643844007851729,
                        -0.4898155180369675,
                        -0.016856299666103393,
                        -0.40847821151864283,
                        -0.43523580895583497,
                        -0.20919922553902398,
                        -0.4223244201814864,
                        -0.27422031537921654,
                        0.18976242382504666,
                        -0.37200462222021874,
                        -0.25176684305340236,
                        -0.2877110288733135,
                        -0.20299301989751062,
                        -0.2924087165865414,
                        -0.3469684517639242,
                        0.23067245716157148,
                        0.16605919513398962,
                        -0.31299681160751125,
                        -0.39200834165524634,
                        -0.3136293036372895,
                        0.16282380993610404,
                        -0.3213386732021184,
                        -0.4039136392805944,
                        -0.3986668616282675,
                        -0.493466098844632,
                        -0.3219913291007208,
                        0.2563987820598694,
                        -0.48195338851937586,
                        -0.4571221472388586,
                        -0.3486643767089012,
                        -0.3293383488496112,
                        -0.5888424822503252,
                        -0.22012510030290483,
                        -0.40394080354582024,
                        -0.07010198748459538,
                        -0.393804724096862,
                        0.04881785617973649,
                        -0.41778235852395984,
                        -0.21412391148954504,
                        -0.35306634468273895,
                        -0.49353979448098517,
                        0.1096198953000975,
                        -0.42472870323091944,
                        -0.5709587259797098,
                        -0.27571633062669304,
                        -0.4656306917751154,
                        -0.2994930373260537,
                        -0.28142363916574303,
                        -0.3567002836932482,
                        -0.3494728656310156,
                        -0.34622815896989095,
                        -0.4542478823211869,
                        -0.12837703850547963,
                        -0.5428768279738202,
                        -0.15642937959011594
                    ]
                ],
                "bias": [
                    [
                        -15768.026140807868,
                        -18723.65556456875,
                        -17283.608944661424,
                        -17292.155061126374,
                        -17292.653200500186,
                        -17293.3214865573,
                        -17295.683370368457,
                        -17296.662696688214,
                        -17296.558918619554,
                        -17299.77427139474,
                        -17499.39092771224,
                        -17284.626111722333,
                        -24407.25282457496,
                        -15767.818191695113,
                        -17301.07892613298,
                        -17294.24524437174,
                        -17301.28860999121,
                        -17292.956642609293,
                        -15767.930646821827,
                        -17296.681134371473,
                        -17292.95730504118,
                        -17294.29375424498,
                        -17288.018439157706,
                        -17293.667504494264,
                        -17299.19399159532,
                        -17292.53154715223,
                        -120718.60966655039,
                        -17300.56445195562,
                        -17295.763524412727,
                        -37726.29997078773,
                        -17293.81059648788,
                        -17300.833375371232,
                        -17289.542869740468,
                        -17298.771135823707,
                        -17296.20209571262,
                        -15767.498684109789,
                        -17288.51570208994,
                        -18719.997240421497,
                        -17293.58640596062,
                        -17287.887641342655,
                        -17300.434390516853,
                        -59591.63222342443,
                        -17295.957494224847,
                        -15767.5683510125,
                        -17291.135847586043,
                        -17293.741787057173,
                        -17292.70303518965,
                        -17302.105167261827,
                        -17293.770124451366,
                        -18720.008467487838,
                        -17299.82011691889,
                        -17290.452883293285,
                        -17292.863163074097,
                        -17295.826435397805,
                        -17288.138206226053,
                        -17297.728432775108,
                        -30854.878669681766,
                        -18720.252368037283,
                        -17297.577425071126,
                        -17288.637306480254,
                        -17293.78843054085,
                        -15767.582693938808,
                        -17289.58014160878,
                        -17289.399746687755,
                        -17298.947906055335,
                        -17290.350496834213,
                        -17295.135302591483,
                        -18730.017849384913,
                        -17289.23413449168,
                        -17296.996781675505,
                        -17293.54697553718,
                        -17295.092327305203,
                        -17301.111153225764,
                        -17299.10991876298,
                        -17291.08101326121,
                        -15767.597269662678,
                        -17294.224227807565,
                        -30856.35129029849,
                        -17294.688330984507,
                        -17300.446779221595,
                        -17292.62539505536,
                        -17291.59006624203,
                        -15767.594089043003,
                        -17291.310927576473,
                        -17296.582344305534,
                        -17300.655120318355,
                        -18869.848526343278,
                        -17294.76746875908,
                        -17292.84265325977,
                        -17289.584125646656,
                        -17294.4425176894,
                        -17297.742807798764,
                        -17289.22145310078,
                        -15767.85408563815,
                        -17299.77444712669,
                        -17296.505762275756
                    ]
                ]
            }
        }
    ]
}