{
    "model": [
        {
            "layer 0": {
                "inputs": 1,
                "outputs": 10,
                "activation": "sigmoid",
                "weights": [
                    [
                        -0.8509450867313707,
                        -1.5313938462956904,
                        -0.7360962236176952,
                        -1.6873977835795555,
                        -1.3560887135584132,
                        0.6129197478784921,
                        -0.9224355673366438,
                        1.0384092848309716,
                        1.767827188588137,
                        1.2829511748714795
                    ]
                ],
                "bias": [
                    [
                        -0.1628434608181808,
                        -0.08673360126526686,
                        -4.442389351545465,
                        -1.1435822953177532,
                        -4.844995478911521,
                        -3.4528763585430053,
                        -0.26066847499787227,
                        -1.1053740420155551,
                        -1.6684486975293868,
                        -4.746852759930582
                    ]
                ]
            }
        },
        {
            "layer 1": {
                "inputs": 10,
                "outputs": 1,
                "activation": "linear",
                "weights": [
                    [
                        3.4068570781738132
                    ],
                    [
                        -2.8994327426180386
                    ],
                    [
                        -6.018595346843913
                    ],
                    [
                        -2.6697562489224484
                    ],
                    [
                        3.865116850733945
                    ],
                    [
                        8.20392668611295
                    ],
                    [
                        1.8571793848558396
                    ],
                    [
                        -3.5348801186413934
                    ],
                    [
                        3.2128029692038917
                    ],
                    [
                        -4.659041189682326
                    ]
                ],
                "bias": [
                    [
                        -0.13651633572174196
                    ]
                ]
            }
        }
    ]
}